digraph Tree {
node [shape=box, fontname="helvetica"] ;
edge [fontname="helvetica"] ;
0 [label="('MaxAbsEStateIndex',) <= 0.088\ngini = 0.429\nsamples = 1600\nvalue = [1102, 498]\nclass = 1"] ;
1 [label="('MaxAbsEStateIndex',) <= -0.264\ngini = 0.204\nsamples = 808\nvalue = [715, 93]\nclass = 1"] ;
0 -> 1 [labeldistance=2.5, labelangle=45, headlabel="True"] ;
2 [label="('VSA_EState2',) <= -0.202\ngini = 0.065\nsamples = 505\nvalue = [488, 17]\nclass = 1"] ;
1 -> 2 ;
3 [label="gini = 0.0\nsamples = 1\nvalue = [0, 1]\nclass = 0"] ;
2 -> 3 ;
4 [label="('MaxAbsEStateIndex',) <= -0.444\ngini = 0.061\nsamples = 504\nvalue = [488, 16]\nclass = 1"] ;
2 -> 4 ;
5 [label="('VSA_EState2',) <= -0.102\ngini = 0.02\nsamples = 387\nvalue = [383, 4]\nclass = 1"] ;
4 -> 5 ;
6 [label="('BCUT2D_CHGLO',) <= 0.165\ngini = 0.147\nsamples = 25\nvalue = [23, 2]\nclass = 1"] ;
5 -> 6 ;
7 [label="('MaxAbsEStateIndex',) <= -0.565\ngini = 0.08\nsamples = 24\nvalue = [23, 1]\nclass = 1"] ;
6 -> 7 ;
8 [label="gini = 0.0\nsamples = 22\nvalue = [22, 0]\nclass = 1"] ;
7 -> 8 ;
9 [label="('SMR_VSA5',) <= 0.028\ngini = 0.5\nsamples = 2\nvalue = [1, 1]\nclass = 1"] ;
7 -> 9 ;
10 [label="gini = 0.0\nsamples = 1\nvalue = [0, 1]\nclass = 0"] ;
9 -> 10 ;
11 [label="gini = 0.0\nsamples = 1\nvalue = [1, 0]\nclass = 1"] ;
9 -> 11 ;
12 [label="gini = 0.0\nsamples = 1\nvalue = [0, 1]\nclass = 0"] ;
6 -> 12 ;
13 [label="('NumAliphaticRings',) <= 0.033\ngini = 0.011\nsamples = 362\nvalue = [360, 2]\nclass = 1"] ;
5 -> 13 ;
14 [label="gini = 0.0\nsamples = 286\nvalue = [286, 0]\nclass = 1"] ;
13 -> 14 ;
15 [label="('NumAliphaticRings',) <= 0.033\ngini = 0.051\nsamples = 76\nvalue = [74, 2]\nclass = 1"] ;
13 -> 15 ;
16 [label="gini = 0.0\nsamples = 1\nvalue = [0, 1]\nclass = 0"] ;
15 -> 16 ;
17 [label="('FractionCSP3',) <= -0.051\ngini = 0.026\nsamples = 75\nvalue = [74, 1]\nclass = 1"] ;
15 -> 17 ;
18 [label="('SlogP_VSA2',) <= -0.055\ngini = 0.278\nsamples = 6\nvalue = [5, 1]\nclass = 1"] ;
17 -> 18 ;
19 [label="gini = 0.0\nsamples = 1\nvalue = [0, 1]\nclass = 0"] ;
18 -> 19 ;
20 [label="gini = 0.0\nsamples = 5\nvalue = [5, 0]\nclass = 1"] ;
18 -> 20 ;
21 [label="gini = 0.0\nsamples = 69\nvalue = [69, 0]\nclass = 1"] ;
17 -> 21 ;
22 [label="('MaxAbsEStateIndex',) <= -0.433\ngini = 0.184\nsamples = 117\nvalue = [105, 12]\nclass = 1"] ;
4 -> 22 ;
23 [label="('SlogP_VSA2',) <= 0.053\ngini = 0.444\nsamples = 6\nvalue = [2, 4]\nclass = 0"] ;
22 -> 23 ;
24 [label="gini = 0.0\nsamples = 4\nvalue = [0, 4]\nclass = 0"] ;
23 -> 24 ;
25 [label="gini = 0.0\nsamples = 2\nvalue = [2, 0]\nclass = 1"] ;
23 -> 25 ;
26 [label="('BCUT2D_CHGHI',) <= 0.066\ngini = 0.134\nsamples = 111\nvalue = [103, 8]\nclass = 1"] ;
22 -> 26 ;
27 [label="('VSA_EState2',) <= -0.112\ngini = 0.045\nsamples = 87\nvalue = [85, 2]\nclass = 1"] ;
26 -> 27 ;
28 [label="('BCUT2D_LOGPLOW',) <= 0.055\ngini = 0.5\nsamples = 2\nvalue = [1, 1]\nclass = 1"] ;
27 -> 28 ;
29 [label="gini = 0.0\nsamples = 1\nvalue = [1, 0]\nclass = 1"] ;
28 -> 29 ;
30 [label="gini = 0.0\nsamples = 1\nvalue = [0, 1]\nclass = 0"] ;
28 -> 30 ;
31 [label="('SMR_VSA1',) <= 0.158\ngini = 0.023\nsamples = 85\nvalue = [84, 1]\nclass = 1"] ;
27 -> 31 ;
32 [label="gini = 0.0\nsamples = 81\nvalue = [81, 0]\nclass = 1"] ;
31 -> 32 ;
33 [label="('MaxAbsEStateIndex',) <= -0.353\ngini = 0.375\nsamples = 4\nvalue = [3, 1]\nclass = 1"] ;
31 -> 33 ;
34 [label="gini = 0.0\nsamples = 1\nvalue = [0, 1]\nclass = 0"] ;
33 -> 34 ;
35 [label="gini = 0.0\nsamples = 3\nvalue = [3, 0]\nclass = 1"] ;
33 -> 35 ;
36 [label="('BCUT2D_LOGPLOW',) <= 0.077\ngini = 0.375\nsamples = 24\nvalue = [18, 6]\nclass = 1"] ;
26 -> 36 ;
37 [label="('VSA_EState2',) <= 0.045\ngini = 0.497\nsamples = 13\nvalue = [7, 6]\nclass = 1"] ;
36 -> 37 ;
38 [label="('MinAbsEStateIndex',) <= 0.151\ngini = 0.444\nsamples = 9\nvalue = [3, 6]\nclass = 0"] ;
37 -> 38 ;
39 [label="gini = 0.0\nsamples = 3\nvalue = [3, 0]\nclass = 1"] ;
38 -> 39 ;
40 [label="gini = 0.0\nsamples = 6\nvalue = [0, 6]\nclass = 0"] ;
38 -> 40 ;
41 [label="gini = 0.0\nsamples = 4\nvalue = [4, 0]\nclass = 1"] ;
37 -> 41 ;
42 [label="gini = 0.0\nsamples = 11\nvalue = [11, 0]\nclass = 1"] ;
36 -> 42 ;
43 [label="('MinEStateIndex',) <= 0.105\ngini = 0.376\nsamples = 303\nvalue = [227, 76]\nclass = 1"] ;
1 -> 43 ;
44 [label="('EState_VSA10',) <= 0.016\ngini = 0.332\nsamples = 266\nvalue = [210, 56]\nclass = 1"] ;
43 -> 44 ;
45 [label="('BCUT2D_MRLOW',) <= 0.137\ngini = 0.413\nsamples = 165\nvalue = [117, 48]\nclass = 1"] ;
44 -> 45 ;
46 [label="('FractionCSP3',) <= -0.097\ngini = 0.389\nsamples = 155\nvalue = [114, 41]\nclass = 1"] ;
45 -> 46 ;
47 [label="gini = 0.0\nsamples = 3\nvalue = [0, 3]\nclass = 0"] ;
46 -> 47 ;
48 [label="('BCUT2D_LOGPLOW',) <= 0.164\ngini = 0.375\nsamples = 152\nvalue = [114, 38]\nclass = 1"] ;
46 -> 48 ;
49 [label="('BCUT2D_LOGPLOW',) <= 0.16\ngini = 0.406\nsamples = 134\nvalue = [96, 38]\nclass = 1"] ;
48 -> 49 ;
50 [label="('MinAbsEStateIndex',) <= -0.275\ngini = 0.392\nsamples = 131\nvalue = [96, 35]\nclass = 1"] ;
49 -> 50 ;
51 [label="('BCUT2D_CHGLO',) <= 0.106\ngini = 0.137\nsamples = 27\nvalue = [25, 2]\nclass = 1"] ;
50 -> 51 ;
52 [label="gini = 0.0\nsamples = 25\nvalue = [25, 0]\nclass = 1"] ;
51 -> 52 ;
53 [label="gini = 0.0\nsamples = 2\nvalue = [0, 2]\nclass = 0"] ;
51 -> 53 ;
54 [label="('BCUT2D_LOGPLOW',) <= 0.127\ngini = 0.433\nsamples = 104\nvalue = [71, 33]\nclass = 1"] ;
50 -> 54 ;
55 [label="('MaxAbsEStateIndex',) <= -0.166\ngini = 0.46\nsamples = 92\nvalue = [59, 33]\nclass = 1"] ;
54 -> 55 ;
56 [label="('MaxAbsEStateIndex',) <= -0.236\ngini = 0.397\nsamples = 11\nvalue = [3, 8]\nclass = 0"] ;
55 -> 56 ;
57 [label="('SlogP_VSA2',) <= 0.074\ngini = 0.375\nsamples = 4\nvalue = [3, 1]\nclass = 1"] ;
56 -> 57 ;
58 [label="gini = 0.0\nsamples = 3\nvalue = [3, 0]\nclass = 1"] ;
57 -> 58 ;
59 [label="gini = 0.0\nsamples = 1\nvalue = [0, 1]\nclass = 0"] ;
57 -> 59 ;
60 [label="gini = 0.0\nsamples = 7\nvalue = [0, 7]\nclass = 0"] ;
56 -> 60 ;
61 [label="('SlogP_VSA2',) <= 0.046\ngini = 0.427\nsamples = 81\nvalue = [56, 25]\nclass = 1"] ;
55 -> 61 ;
62 [label="('MinAbsEStateIndex',) <= -0.251\ngini = 0.477\nsamples = 61\nvalue = [37, 24]\nclass = 1"] ;
61 -> 62 ;
63 [label="gini = 0.0\nsamples = 4\nvalue = [0, 4]\nclass = 0"] ;
62 -> 63 ;
64 [label="('NumAliphaticRings',) <= -0.041\ngini = 0.456\nsamples = 57\nvalue = [37, 20]\nclass = 1"] ;
62 -> 64 ;
65 [label="('MinEStateIndex',) <= 0.031\ngini = 0.142\nsamples = 13\nvalue = [12, 1]\nclass = 1"] ;
64 -> 65 ;
66 [label="gini = 0.0\nsamples = 12\nvalue = [12, 0]\nclass = 1"] ;
65 -> 66 ;
67 [label="gini = 0.0\nsamples = 1\nvalue = [0, 1]\nclass = 0"] ;
65 -> 67 ;
68 [label="('BCUT2D_MRLOW',) <= -0.065\ngini = 0.491\nsamples = 44\nvalue = [25, 19]\nclass = 1"] ;
64 -> 68 ;
69 [label="('FractionCSP3',) <= -0.035\ngini = 0.165\nsamples = 11\nvalue = [10, 1]\nclass = 1"] ;
68 -> 69 ;
70 [label="gini = 0.0\nsamples = 1\nvalue = [0, 1]\nclass = 0"] ;
69 -> 70 ;
71 [label="gini = 0.0\nsamples = 10\nvalue = [10, 0]\nclass = 1"] ;
69 -> 71 ;
72 [label="('MaxAbsEStateIndex',) <= -0.077\ngini = 0.496\nsamples = 33\nvalue = [15, 18]\nclass = 0"] ;
68 -> 72 ;
73 [label="('MinAbsEStateIndex',) <= -0.173\ngini = 0.397\nsamples = 11\nvalue = [8, 3]\nclass = 1"] ;
72 -> 73 ;
74 [label="gini = 0.0\nsamples = 3\nvalue = [0, 3]\nclass = 0"] ;
73 -> 74 ;
75 [label="gini = 0.0\nsamples = 8\nvalue = [8, 0]\nclass = 1"] ;
73 -> 75 ;
76 [label="('SMR_VSA1',) <= -0.085\ngini = 0.434\nsamples = 22\nvalue = [7, 15]\nclass = 0"] ;
72 -> 76 ;
77 [label="gini = 0.0\nsamples = 3\nvalue = [3, 0]\nclass = 1"] ;
76 -> 77 ;
78 [label="('MinEStateIndex',) <= -0.17\ngini = 0.332\nsamples = 19\nvalue = [4, 15]\nclass = 0"] ;
76 -> 78 ;
79 [label="gini = 0.0\nsamples = 2\nvalue = [2, 0]\nclass = 1"] ;
78 -> 79 ;
80 [label="('MinEStateIndex',) <= 0.095\ngini = 0.208\nsamples = 17\nvalue = [2, 15]\nclass = 0"] ;
78 -> 80 ;
81 [label="('BCUT2D_MRLOW',) <= 0.127\ngini = 0.117\nsamples = 16\nvalue = [1, 15]\nclass = 0"] ;
80 -> 81 ;
82 [label="gini = 0.0\nsamples = 15\nvalue = [0, 15]\nclass = 0"] ;
81 -> 82 ;
83 [label="gini = 0.0\nsamples = 1\nvalue = [1, 0]\nclass = 1"] ;
81 -> 83 ;
84 [label="gini = 0.0\nsamples = 1\nvalue = [1, 0]\nclass = 1"] ;
80 -> 84 ;
85 [label="('BCUT2D_CHGHI',) <= 0.043\ngini = 0.095\nsamples = 20\nvalue = [19, 1]\nclass = 1"] ;
61 -> 85 ;
86 [label="gini = 0.0\nsamples = 19\nvalue = [19, 0]\nclass = 1"] ;
85 -> 86 ;
87 [label="gini = 0.0\nsamples = 1\nvalue = [0, 1]\nclass = 0"] ;
85 -> 87 ;
88 [label="gini = 0.0\nsamples = 12\nvalue = [12, 0]\nclass = 1"] ;
54 -> 88 ;
89 [label="gini = 0.0\nsamples = 3\nvalue = [0, 3]\nclass = 0"] ;
49 -> 89 ;
90 [label="gini = 0.0\nsamples = 18\nvalue = [18, 0]\nclass = 1"] ;
48 -> 90 ;
91 [label="('MinAbsEStateIndex',) <= -0.14\ngini = 0.42\nsamples = 10\nvalue = [3, 7]\nclass = 0"] ;
45 -> 91 ;
92 [label="gini = 0.0\nsamples = 7\nvalue = [0, 7]\nclass = 0"] ;
91 -> 92 ;
93 [label="gini = 0.0\nsamples = 3\nvalue = [3, 0]\nclass = 1"] ;
91 -> 93 ;
94 [label="('MaxAbsEStateIndex',) <= -0.262\ngini = 0.146\nsamples = 101\nvalue = [93, 8]\nclass = 1"] ;
44 -> 94 ;
95 [label="gini = 0.0\nsamples = 1\nvalue = [0, 1]\nclass = 0"] ;
94 -> 95 ;
96 [label="('SlogP_VSA2',) <= -0.033\ngini = 0.13\nsamples = 100\nvalue = [93, 7]\nclass = 1"] ;
94 -> 96 ;
97 [label="('BCUT2D_LOGPLOW',) <= 0.071\ngini = 0.284\nsamples = 35\nvalue = [29, 6]\nclass = 1"] ;
96 -> 97 ;
98 [label="('BCUT2D_MRLOW',) <= -0.177\ngini = 0.08\nsamples = 24\nvalue = [23, 1]\nclass = 1"] ;
97 -> 98 ;
99 [label="('BCUT2D_MRLOW',) <= -0.236\ngini = 0.5\nsamples = 2\nvalue = [1, 1]\nclass = 1"] ;
98 -> 99 ;
100 [label="gini = 0.0\nsamples = 1\nvalue = [1, 0]\nclass = 1"] ;
99 -> 100 ;
101 [label="gini = 0.0\nsamples = 1\nvalue = [0, 1]\nclass = 0"] ;
99 -> 101 ;
102 [label="gini = 0.0\nsamples = 22\nvalue = [22, 0]\nclass = 1"] ;
98 -> 102 ;
103 [label="('BCUT2D_LOGPLOW',) <= 0.107\ngini = 0.496\nsamples = 11\nvalue = [6, 5]\nclass = 1"] ;
97 -> 103 ;
104 [label="gini = 0.0\nsamples = 3\nvalue = [0, 3]\nclass = 0"] ;
103 -> 104 ;
105 [label="('EState_VSA10',) <= 0.102\ngini = 0.375\nsamples = 8\nvalue = [6, 2]\nclass = 1"] ;
103 -> 105 ;
106 [label="gini = 0.0\nsamples = 6\nvalue = [6, 0]\nclass = 1"] ;
105 -> 106 ;
107 [label="gini = 0.0\nsamples = 2\nvalue = [0, 2]\nclass = 0"] ;
105 -> 107 ;
108 [label="('BCUT2D_LOGPLOW',) <= 0.134\ngini = 0.03\nsamples = 65\nvalue = [64, 1]\nclass = 1"] ;
96 -> 108 ;
109 [label="gini = 0.0\nsamples = 53\nvalue = [53, 0]\nclass = 1"] ;
108 -> 109 ;
110 [label="('FractionCSP3',) <= 0.013\ngini = 0.153\nsamples = 12\nvalue = [11, 1]\nclass = 1"] ;
108 -> 110 ;
111 [label="gini = 0.0\nsamples = 11\nvalue = [11, 0]\nclass = 1"] ;
110 -> 111 ;
112 [label="gini = 0.0\nsamples = 1\nvalue = [0, 1]\nclass = 0"] ;
110 -> 112 ;
113 [label="('BCUT2D_CHGHI',) <= -0.097\ngini = 0.497\nsamples = 37\nvalue = [17, 20]\nclass = 0"] ;
43 -> 113 ;
114 [label="('NumAliphaticRings',) <= 0.055\ngini = 0.198\nsamples = 9\nvalue = [8, 1]\nclass = 1"] ;
113 -> 114 ;
115 [label="gini = 0.0\nsamples = 8\nvalue = [8, 0]\nclass = 1"] ;
114 -> 115 ;
116 [label="gini = 0.0\nsamples = 1\nvalue = [0, 1]\nclass = 0"] ;
114 -> 116 ;
117 [label="('MinAbsEStateIndex',) <= 0.573\ngini = 0.436\nsamples = 28\nvalue = [9, 19]\nclass = 0"] ;
113 -> 117 ;
118 [label="('SMR_VSA1',) <= -0.146\ngini = 0.365\nsamples = 25\nvalue = [6, 19]\nclass = 0"] ;
117 -> 118 ;
119 [label="gini = 0.0\nsamples = 2\nvalue = [2, 0]\nclass = 1"] ;
118 -> 119 ;
120 [label="('EState_VSA10',) <= -0.124\ngini = 0.287\nsamples = 23\nvalue = [4, 19]\nclass = 0"] ;
118 -> 120 ;
121 [label="gini = 0.0\nsamples = 2\nvalue = [2, 0]\nclass = 1"] ;
120 -> 121 ;
122 [label="('BCUT2D_MRLOW',) <= -0.241\ngini = 0.172\nsamples = 21\nvalue = [2, 19]\nclass = 0"] ;
120 -> 122 ;
123 [label="gini = 0.0\nsamples = 1\nvalue = [1, 0]\nclass = 1"] ;
122 -> 123 ;
124 [label="('NumAliphaticRings',) <= 0.083\ngini = 0.095\nsamples = 20\nvalue = [1, 19]\nclass = 0"] ;
122 -> 124 ;
125 [label="gini = 0.0\nsamples = 19\nvalue = [0, 19]\nclass = 0"] ;
124 -> 125 ;
126 [label="gini = 0.0\nsamples = 1\nvalue = [1, 0]\nclass = 1"] ;
124 -> 126 ;
127 [label="gini = 0.0\nsamples = 3\nvalue = [3, 0]\nclass = 1"] ;
117 -> 127 ;
128 [label="('MinAbsEStateIndex',) <= -0.414\ngini = 0.5\nsamples = 792\nvalue = [387, 405]\nclass = 0"] ;
0 -> 128 [labeldistance=2.5, labelangle=-45, headlabel="False"] ;
129 [label="('VSA_EState2',) <= -0.064\ngini = 0.134\nsamples = 69\nvalue = [64, 5]\nclass = 1"] ;
128 -> 129 ;
130 [label="('BCUT2D_MRLOW',) <= 0.156\ngini = 0.375\nsamples = 4\nvalue = [1, 3]\nclass = 0"] ;
129 -> 130 ;
131 [label="gini = 0.0\nsamples = 3\nvalue = [0, 3]\nclass = 0"] ;
130 -> 131 ;
132 [label="gini = 0.0\nsamples = 1\nvalue = [1, 0]\nclass = 1"] ;
130 -> 132 ;
133 [label="('BCUT2D_MRLOW',) <= -0.061\ngini = 0.06\nsamples = 65\nvalue = [63, 2]\nclass = 1"] ;
129 -> 133 ;
134 [label="('SlogP_VSA2',) <= -0.023\ngini = 0.5\nsamples = 2\nvalue = [1, 1]\nclass = 1"] ;
133 -> 134 ;
135 [label="gini = 0.0\nsamples = 1\nvalue = [0, 1]\nclass = 0"] ;
134 -> 135 ;
136 [label="gini = 0.0\nsamples = 1\nvalue = [1, 0]\nclass = 1"] ;
134 -> 136 ;
137 [label="('NumAliphaticRings',) <= -0.078\ngini = 0.031\nsamples = 63\nvalue = [62, 1]\nclass = 1"] ;
133 -> 137 ;
138 [label="('NumAliphaticRings',) <= -0.084\ngini = 0.278\nsamples = 6\nvalue = [5, 1]\nclass = 1"] ;
137 -> 138 ;
139 [label="gini = 0.0\nsamples = 5\nvalue = [5, 0]\nclass = 1"] ;
138 -> 139 ;
140 [label="gini = 0.0\nsamples = 1\nvalue = [0, 1]\nclass = 0"] ;
138 -> 140 ;
141 [label="gini = 0.0\nsamples = 57\nvalue = [57, 0]\nclass = 1"] ;
137 -> 141 ;
142 [label="('MinAbsEStateIndex',) <= 0.165\ngini = 0.494\nsamples = 723\nvalue = [323, 400]\nclass = 0"] ;
128 -> 142 ;
143 [label="('BCUT2D_MRLOW',) <= 0.053\ngini = 0.479\nsamples = 542\nvalue = [215, 327]\nclass = 0"] ;
142 -> 143 ;
144 [label="('BCUT2D_LOGPLOW',) <= 0.152\ngini = 0.497\nsamples = 337\nvalue = [156, 181]\nclass = 0"] ;
143 -> 144 ;
145 [label="('SMR_VSA1',) <= 0.121\ngini = 0.49\nsamples = 299\nvalue = [128, 171]\nclass = 0"] ;
144 -> 145 ;
146 [label="('VSA_EState2',) <= 0.101\ngini = 0.496\nsamples = 272\nvalue = [124, 148]\nclass = 0"] ;
145 -> 146 ;
147 [label="('NumAliphaticRings',) <= -0.04\ngini = 0.499\nsamples = 251\nvalue = [121, 130]\nclass = 0"] ;
146 -> 147 ;
148 [label="('MaxAbsEStateIndex',) <= 0.112\ngini = 0.43\nsamples = 67\nvalue = [21, 46]\nclass = 0"] ;
147 -> 148 ;
149 [label="gini = 0.0\nsamples = 3\nvalue = [3, 0]\nclass = 1"] ;
148 -> 149 ;
150 [label="('SlogP_VSA2',) <= -0.041\ngini = 0.404\nsamples = 64\nvalue = [18, 46]\nclass = 0"] ;
148 -> 150 ;
151 [label="gini = 0.0\nsamples = 3\nvalue = [3, 0]\nclass = 1"] ;
150 -> 151 ;
152 [label="('EState_VSA10',) <= -0.055\ngini = 0.371\nsamples = 61\nvalue = [15, 46]\nclass = 0"] ;
150 -> 152 ;
153 [label="('MinAbsEStateIndex',) <= -0.034\ngini = 0.469\nsamples = 8\nvalue = [5, 3]\nclass = 1"] ;
152 -> 153 ;
154 [label="('BCUT2D_CHGLO',) <= 0.283\ngini = 0.375\nsamples = 4\nvalue = [1, 3]\nclass = 0"] ;
153 -> 154 ;
155 [label="gini = 0.0\nsamples = 3\nvalue = [0, 3]\nclass = 0"] ;
154 -> 155 ;
156 [label="gini = 0.0\nsamples = 1\nvalue = [1, 0]\nclass = 1"] ;
154 -> 156 ;
157 [label="gini = 0.0\nsamples = 4\nvalue = [4, 0]\nclass = 1"] ;
153 -> 157 ;
158 [label="('MaxAbsEStateIndex',) <= 0.903\ngini = 0.306\nsamples = 53\nvalue = [10, 43]\nclass = 0"] ;
152 -> 158 ;
159 [label="('SMR_VSA1',) <= 0.09\ngini = 0.265\nsamples = 51\nvalue = [8, 43]\nclass = 0"] ;
158 -> 159 ;
160 [label="('MinAbsEStateIndex',) <= -0.186\ngini = 0.219\nsamples = 48\nvalue = [6, 42]\nclass = 0"] ;
159 -> 160 ;
161 [label="('EState_VSA10',) <= 0.027\ngini = 0.401\nsamples = 18\nvalue = [5, 13]\nclass = 0"] ;
160 -> 161 ;
162 [label="('BCUT2D_CHGHI',) <= 0.182\ngini = 0.49\nsamples = 7\nvalue = [4, 3]\nclass = 1"] ;
161 -> 162 ;
163 [label="gini = 0.0\nsamples = 3\nvalue = [0, 3]\nclass = 0"] ;
162 -> 163 ;
164 [label="gini = 0.0\nsamples = 4\nvalue = [4, 0]\nclass = 1"] ;
162 -> 164 ;
165 [label="('SMR_VSA1',) <= 0.048\ngini = 0.165\nsamples = 11\nvalue = [1, 10]\nclass = 0"] ;
161 -> 165 ;
166 [label="gini = 0.0\nsamples = 10\nvalue = [0, 10]\nclass = 0"] ;
165 -> 166 ;
167 [label="gini = 0.0\nsamples = 1\nvalue = [1, 0]\nclass = 1"] ;
165 -> 167 ;
168 [label="('BCUT2D_MRLOW',) <= 0.042\ngini = 0.064\nsamples = 30\nvalue = [1, 29]\nclass = 0"] ;
160 -> 168 ;
169 [label="gini = 0.0\nsamples = 29\nvalue = [0, 29]\nclass = 0"] ;
168 -> 169 ;
170 [label="gini = 0.0\nsamples = 1\nvalue = [1, 0]\nclass = 1"] ;
168 -> 170 ;
171 [label="('BCUT2D_MRLOW',) <= -0.143\ngini = 0.444\nsamples = 3\nvalue = [2, 1]\nclass = 1"] ;
159 -> 171 ;
172 [label="gini = 0.0\nsamples = 1\nvalue = [0, 1]\nclass = 0"] ;
171 -> 172 ;
173 [label="gini = 0.0\nsamples = 2\nvalue = [2, 0]\nclass = 1"] ;
171 -> 173 ;
174 [label="gini = 0.0\nsamples = 2\nvalue = [2, 0]\nclass = 1"] ;
158 -> 174 ;
175 [label="('FractionCSP3',) <= 0.049\ngini = 0.496\nsamples = 184\nvalue = [100, 84]\nclass = 1"] ;
147 -> 175 ;
176 [label="('MinEStateIndex',) <= 0.215\ngini = 0.48\nsamples = 145\nvalue = [87, 58]\nclass = 1"] ;
175 -> 176 ;
177 [label="('BCUT2D_CHGHI',) <= 0.338\ngini = 0.47\nsamples = 138\nvalue = [86, 52]\nclass = 1"] ;
176 -> 177 ;
178 [label="('BCUT2D_CHGLO',) <= 0.183\ngini = 0.453\nsamples = 130\nvalue = [85, 45]\nclass = 1"] ;
177 -> 178 ;
179 [label="('VSA_EState2',) <= 0.073\ngini = 0.474\nsamples = 114\nvalue = [70, 44]\nclass = 1"] ;
178 -> 179 ;
180 [label="('MinEStateIndex',) <= -0.145\ngini = 0.492\nsamples = 94\nvalue = [53, 41]\nclass = 1"] ;
179 -> 180 ;
181 [label="('SMR_VSA5',) <= -0.007\ngini = 0.363\nsamples = 21\nvalue = [16, 5]\nclass = 1"] ;
180 -> 181 ;
182 [label="gini = 0.0\nsamples = 10\nvalue = [10, 0]\nclass = 1"] ;
181 -> 182 ;
183 [label="('NumAliphaticRings',) <= -0.007\ngini = 0.496\nsamples = 11\nvalue = [6, 5]\nclass = 1"] ;
181 -> 183 ;
184 [label="gini = 0.0\nsamples = 3\nvalue = [0, 3]\nclass = 0"] ;
183 -> 184 ;
185 [label="('BCUT2D_LOGPLOW',) <= -0.135\ngini = 0.375\nsamples = 8\nvalue = [6, 2]\nclass = 1"] ;
183 -> 185 ;
186 [label="('MinAbsEStateIndex',) <= 0.016\ngini = 0.444\nsamples = 3\nvalue = [1, 2]\nclass = 0"] ;
185 -> 186 ;
187 [label="gini = 0.0\nsamples = 2\nvalue = [0, 2]\nclass = 0"] ;
186 -> 187 ;
188 [label="gini = 0.0\nsamples = 1\nvalue = [1, 0]\nclass = 1"] ;
186 -> 188 ;
189 [label="gini = 0.0\nsamples = 5\nvalue = [5, 0]\nclass = 1"] ;
185 -> 189 ;
190 [label="('BCUT2D_LOGPLOW',) <= 0.123\ngini = 0.5\nsamples = 73\nvalue = [37, 36]\nclass = 1"] ;
180 -> 190 ;
191 [label="('BCUT2D_MRLOW',) <= -0.14\ngini = 0.498\nsamples = 68\nvalue = [32, 36]\nclass = 0"] ;
190 -> 191 ;
192 [label="('EState_VSA10',) <= 0.047\ngini = 0.401\nsamples = 18\nvalue = [13, 5]\nclass = 1"] ;
191 -> 192 ;
193 [label="('BCUT2D_MRLOW',) <= -0.364\ngini = 0.142\nsamples = 13\nvalue = [12, 1]\nclass = 1"] ;
192 -> 193 ;
194 [label="gini = 0.0\nsamples = 1\nvalue = [0, 1]\nclass = 0"] ;
193 -> 194 ;
195 [label="gini = 0.0\nsamples = 12\nvalue = [12, 0]\nclass = 1"] ;
193 -> 195 ;
196 [label="('BCUT2D_CHGHI',) <= 0.304\ngini = 0.32\nsamples = 5\nvalue = [1, 4]\nclass = 0"] ;
192 -> 196 ;
197 [label="gini = 0.0\nsamples = 4\nvalue = [0, 4]\nclass = 0"] ;
196 -> 197 ;
198 [label="gini = 0.0\nsamples = 1\nvalue = [1, 0]\nclass = 1"] ;
196 -> 198 ;
199 [label="('BCUT2D_LOGPLOW',) <= -0.147\ngini = 0.471\nsamples = 50\nvalue = [19, 31]\nclass = 0"] ;
191 -> 199 ;
200 [label="('EState_VSA10',) <= -0.052\ngini = 0.278\nsamples = 6\nvalue = [5, 1]\nclass = 1"] ;
199 -> 200 ;
201 [label="gini = 0.0\nsamples = 1\nvalue = [0, 1]\nclass = 0"] ;
200 -> 201 ;
202 [label="gini = 0.0\nsamples = 5\nvalue = [5, 0]\nclass = 1"] ;
200 -> 202 ;
203 [label="('BCUT2D_CHGLO',) <= -0.17\ngini = 0.434\nsamples = 44\nvalue = [14, 30]\nclass = 0"] ;
199 -> 203 ;
204 [label="gini = 0.0\nsamples = 3\nvalue = [3, 0]\nclass = 1"] ;
203 -> 204 ;
205 [label="('NumAliphaticRings',) <= 0.037\ngini = 0.393\nsamples = 41\nvalue = [11, 30]\nclass = 0"] ;
203 -> 205 ;
206 [label="('MinAbsEStateIndex',) <= -0.386\ngini = 0.355\nsamples = 39\nvalue = [9, 30]\nclass = 0"] ;
205 -> 206 ;
207 [label="gini = 0.0\nsamples = 2\nvalue = [2, 0]\nclass = 1"] ;
206 -> 207 ;
208 [label="('EState_VSA10',) <= 0.077\ngini = 0.307\nsamples = 37\nvalue = [7, 30]\nclass = 0"] ;
206 -> 208 ;
209 [label="('BCUT2D_CHGLO',) <= 0.171\ngini = 0.219\nsamples = 32\nvalue = [4, 28]\nclass = 0"] ;
208 -> 209 ;
210 [label="('BCUT2D_MRLOW',) <= -0.011\ngini = 0.175\nsamples = 31\nvalue = [3, 28]\nclass = 0"] ;
209 -> 210 ;
211 [label="gini = 0.0\nsamples = 20\nvalue = [0, 20]\nclass = 0"] ;
210 -> 211 ;
212 [label="('BCUT2D_MRLOW',) <= -0.003\ngini = 0.397\nsamples = 11\nvalue = [3, 8]\nclass = 0"] ;
210 -> 212 ;
213 [label="gini = 0.0\nsamples = 2\nvalue = [2, 0]\nclass = 1"] ;
212 -> 213 ;
214 [label="('MaxAbsEStateIndex',) <= 0.35\ngini = 0.198\nsamples = 9\nvalue = [1, 8]\nclass = 0"] ;
212 -> 214 ;
215 [label="gini = 0.0\nsamples = 8\nvalue = [0, 8]\nclass = 0"] ;
214 -> 215 ;
216 [label="gini = 0.0\nsamples = 1\nvalue = [1, 0]\nclass = 1"] ;
214 -> 216 ;
217 [label="gini = 0.0\nsamples = 1\nvalue = [1, 0]\nclass = 1"] ;
209 -> 217 ;
218 [label="('SlogP_VSA2',) <= -0.109\ngini = 0.48\nsamples = 5\nvalue = [3, 2]\nclass = 1"] ;
208 -> 218 ;
219 [label="gini = 0.0\nsamples = 2\nvalue = [0, 2]\nclass = 0"] ;
218 -> 219 ;
220 [label="gini = 0.0\nsamples = 3\nvalue = [3, 0]\nclass = 1"] ;
218 -> 220 ;
221 [label="gini = 0.0\nsamples = 2\nvalue = [2, 0]\nclass = 1"] ;
205 -> 221 ;
222 [label="gini = 0.0\nsamples = 5\nvalue = [5, 0]\nclass = 1"] ;
190 -> 222 ;
223 [label="('BCUT2D_LOGPLOW',) <= 0.002\ngini = 0.255\nsamples = 20\nvalue = [17, 3]\nclass = 1"] ;
179 -> 223 ;
224 [label="gini = 0.0\nsamples = 14\nvalue = [14, 0]\nclass = 1"] ;
223 -> 224 ;
225 [label="('MinEStateIndex',) <= 0.013\ngini = 0.5\nsamples = 6\nvalue = [3, 3]\nclass = 1"] ;
223 -> 225 ;
226 [label="gini = 0.0\nsamples = 3\nvalue = [0, 3]\nclass = 0"] ;
225 -> 226 ;
227 [label="gini = 0.0\nsamples = 3\nvalue = [3, 0]\nclass = 1"] ;
225 -> 227 ;
228 [label="('NumAliphaticRings',) <= -0.034\ngini = 0.117\nsamples = 16\nvalue = [15, 1]\nclass = 1"] ;
178 -> 228 ;
229 [label="gini = 0.0\nsamples = 1\nvalue = [0, 1]\nclass = 0"] ;
228 -> 229 ;
230 [label="gini = 0.0\nsamples = 15\nvalue = [15, 0]\nclass = 1"] ;
228 -> 230 ;
231 [label="('MinEStateIndex',) <= -0.132\ngini = 0.219\nsamples = 8\nvalue = [1, 7]\nclass = 0"] ;
177 -> 231 ;
232 [label="gini = 0.0\nsamples = 1\nvalue = [1, 0]\nclass = 1"] ;
231 -> 232 ;
233 [label="gini = 0.0\nsamples = 7\nvalue = [0, 7]\nclass = 0"] ;
231 -> 233 ;
234 [label="('MinAbsEStateIndex',) <= 0.019\ngini = 0.245\nsamples = 7\nvalue = [1, 6]\nclass = 0"] ;
176 -> 234 ;
235 [label="gini = 0.0\nsamples = 1\nvalue = [1, 0]\nclass = 1"] ;
234 -> 235 ;
236 [label="gini = 0.0\nsamples = 6\nvalue = [0, 6]\nclass = 0"] ;
234 -> 236 ;
237 [label="('SlogP_VSA2',) <= -0.021\ngini = 0.444\nsamples = 39\nvalue = [13, 26]\nclass = 0"] ;
175 -> 237 ;
238 [label="('MaxAbsEStateIndex',) <= 0.528\ngini = 0.469\nsamples = 16\nvalue = [10, 6]\nclass = 1"] ;
237 -> 238 ;
239 [label="('BCUT2D_LOGPLOW',) <= 0.129\ngini = 0.165\nsamples = 11\nvalue = [10, 1]\nclass = 1"] ;
238 -> 239 ;
240 [label="gini = 0.0\nsamples = 10\nvalue = [10, 0]\nclass = 1"] ;
239 -> 240 ;
241 [label="gini = 0.0\nsamples = 1\nvalue = [0, 1]\nclass = 0"] ;
239 -> 241 ;
242 [label="gini = 0.0\nsamples = 5\nvalue = [0, 5]\nclass = 0"] ;
238 -> 242 ;
243 [label="('BCUT2D_CHGHI',) <= 0.355\ngini = 0.227\nsamples = 23\nvalue = [3, 20]\nclass = 0"] ;
237 -> 243 ;
244 [label="('BCUT2D_MRLOW',) <= 0.046\ngini = 0.095\nsamples = 20\nvalue = [1, 19]\nclass = 0"] ;
243 -> 244 ;
245 [label="gini = 0.0\nsamples = 19\nvalue = [0, 19]\nclass = 0"] ;
244 -> 245 ;
246 [label="gini = 0.0\nsamples = 1\nvalue = [1, 0]\nclass = 1"] ;
244 -> 246 ;
247 [label="('BCUT2D_MRLOW',) <= -0.19\ngini = 0.444\nsamples = 3\nvalue = [2, 1]\nclass = 1"] ;
243 -> 247 ;
248 [label="gini = 0.0\nsamples = 1\nvalue = [0, 1]\nclass = 0"] ;
247 -> 248 ;
249 [label="gini = 0.0\nsamples = 2\nvalue = [2, 0]\nclass = 1"] ;
247 -> 249 ;
250 [label="('BCUT2D_MRLOW',) <= -0.04\ngini = 0.245\nsamples = 21\nvalue = [3, 18]\nclass = 0"] ;
146 -> 250 ;
251 [label="gini = 0.0\nsamples = 14\nvalue = [0, 14]\nclass = 0"] ;
250 -> 251 ;
252 [label="('MaxAbsEStateIndex',) <= 0.378\ngini = 0.49\nsamples = 7\nvalue = [3, 4]\nclass = 0"] ;
250 -> 252 ;
253 [label="gini = 0.0\nsamples = 4\nvalue = [0, 4]\nclass = 0"] ;
252 -> 253 ;
254 [label="gini = 0.0\nsamples = 3\nvalue = [3, 0]\nclass = 1"] ;
252 -> 254 ;
255 [label="('BCUT2D_MRLOW',) <= -0.103\ngini = 0.252\nsamples = 27\nvalue = [4, 23]\nclass = 0"] ;
145 -> 255 ;
256 [label="('BCUT2D_CHGHI',) <= -0.107\ngini = 0.494\nsamples = 9\nvalue = [4, 5]\nclass = 0"] ;
255 -> 256 ;
257 [label="('MaxAbsEStateIndex',) <= 0.113\ngini = 0.278\nsamples = 6\nvalue = [1, 5]\nclass = 0"] ;
256 -> 257 ;
258 [label="gini = 0.0\nsamples = 1\nvalue = [1, 0]\nclass = 1"] ;
257 -> 258 ;
259 [label="gini = 0.0\nsamples = 5\nvalue = [0, 5]\nclass = 0"] ;
257 -> 259 ;
260 [label="gini = 0.0\nsamples = 3\nvalue = [3, 0]\nclass = 1"] ;
256 -> 260 ;
261 [label="gini = 0.0\nsamples = 18\nvalue = [0, 18]\nclass = 0"] ;
255 -> 261 ;
262 [label="('SMR_VSA5',) <= -0.073\ngini = 0.388\nsamples = 38\nvalue = [28, 10]\nclass = 1"] ;
144 -> 262 ;
263 [label="('BCUT2D_MRLOW',) <= 0.005\ngini = 0.32\nsamples = 5\nvalue = [1, 4]\nclass = 0"] ;
262 -> 263 ;
264 [label="gini = 0.0\nsamples = 1\nvalue = [1, 0]\nclass = 1"] ;
263 -> 264 ;
265 [label="gini = 0.0\nsamples = 4\nvalue = [0, 4]\nclass = 0"] ;
263 -> 265 ;
266 [label="('VSA_EState2',) <= 0.048\ngini = 0.298\nsamples = 33\nvalue = [27, 6]\nclass = 1"] ;
262 -> 266 ;
267 [label="('FractionCSP3',) <= -0.131\ngini = 0.137\nsamples = 27\nvalue = [25, 2]\nclass = 1"] ;
266 -> 267 ;
268 [label="gini = 0.0\nsamples = 1\nvalue = [0, 1]\nclass = 0"] ;
267 -> 268 ;
269 [label="('BCUT2D_CHGLO',) <= -0.071\ngini = 0.074\nsamples = 26\nvalue = [25, 1]\nclass = 1"] ;
267 -> 269 ;
270 [label="gini = 0.0\nsamples = 1\nvalue = [0, 1]\nclass = 0"] ;
269 -> 270 ;
271 [label="gini = 0.0\nsamples = 25\nvalue = [25, 0]\nclass = 1"] ;
269 -> 271 ;
272 [label="('BCUT2D_CHGHI',) <= 0.112\ngini = 0.444\nsamples = 6\nvalue = [2, 4]\nclass = 0"] ;
266 -> 272 ;
273 [label="gini = 0.0\nsamples = 4\nvalue = [0, 4]\nclass = 0"] ;
272 -> 273 ;
274 [label="gini = 0.0\nsamples = 2\nvalue = [2, 0]\nclass = 1"] ;
272 -> 274 ;
275 [label="('BCUT2D_LOGPLOW',) <= 0.006\ngini = 0.41\nsamples = 205\nvalue = [59, 146]\nclass = 0"] ;
143 -> 275 ;
276 [label="('BCUT2D_LOGPLOW',) <= -0.171\ngini = 0.318\nsamples = 106\nvalue = [21, 85]\nclass = 0"] ;
275 -> 276 ;
277 [label="('MinAbsEStateIndex',) <= 0.013\ngini = 0.472\nsamples = 34\nvalue = [13, 21]\nclass = 0"] ;
276 -> 277 ;
278 [label="('BCUT2D_LOGPLOW',) <= -0.182\ngini = 0.198\nsamples = 18\nvalue = [2, 16]\nclass = 0"] ;
277 -> 278 ;
279 [label="gini = 0.0\nsamples = 16\nvalue = [0, 16]\nclass = 0"] ;
278 -> 279 ;
280 [label="gini = 0.0\nsamples = 2\nvalue = [2, 0]\nclass = 1"] ;
278 -> 280 ;
281 [label="('SMR_VSA1',) <= 0.123\ngini = 0.43\nsamples = 16\nvalue = [11, 5]\nclass = 1"] ;
277 -> 281 ;
282 [label="('BCUT2D_MRLOW',) <= 0.063\ngini = 0.165\nsamples = 11\nvalue = [10, 1]\nclass = 1"] ;
281 -> 282 ;
283 [label="gini = 0.0\nsamples = 1\nvalue = [0, 1]\nclass = 0"] ;
282 -> 283 ;
284 [label="gini = 0.0\nsamples = 10\nvalue = [10, 0]\nclass = 1"] ;
282 -> 284 ;
285 [label="('BCUT2D_CHGHI',) <= -0.052\ngini = 0.32\nsamples = 5\nvalue = [1, 4]\nclass = 0"] ;
281 -> 285 ;
286 [label="gini = 0.0\nsamples = 4\nvalue = [0, 4]\nclass = 0"] ;
285 -> 286 ;
287 [label="gini = 0.0\nsamples = 1\nvalue = [1, 0]\nclass = 1"] ;
285 -> 287 ;
288 [label="('FractionCSP3',) <= -0.081\ngini = 0.198\nsamples = 72\nvalue = [8, 64]\nclass = 0"] ;
276 -> 288 ;
289 [label="('EState_VSA10',) <= -0.091\ngini = 0.49\nsamples = 7\nvalue = [4, 3]\nclass = 1"] ;
288 -> 289 ;
290 [label="gini = 0.0\nsamples = 3\nvalue = [3, 0]\nclass = 1"] ;
289 -> 290 ;
291 [label="('BCUT2D_MRLOW',) <= 0.121\ngini = 0.375\nsamples = 4\nvalue = [1, 3]\nclass = 0"] ;
289 -> 291 ;
292 [label="gini = 0.0\nsamples = 3\nvalue = [0, 3]\nclass = 0"] ;
291 -> 292 ;
293 [label="gini = 0.0\nsamples = 1\nvalue = [1, 0]\nclass = 1"] ;
291 -> 293 ;
294 [label="('NumAliphaticRings',) <= -0.097\ngini = 0.116\nsamples = 65\nvalue = [4, 61]\nclass = 0"] ;
288 -> 294 ;
295 [label="gini = 0.0\nsamples = 1\nvalue = [1, 0]\nclass = 1"] ;
294 -> 295 ;
296 [label="('MinEStateIndex',) <= -0.383\ngini = 0.089\nsamples = 64\nvalue = [3, 61]\nclass = 0"] ;
294 -> 296 ;
297 [label="gini = 0.0\nsamples = 1\nvalue = [1, 0]\nclass = 1"] ;
296 -> 297 ;
298 [label="('MaxAbsEStateIndex',) <= 0.636\ngini = 0.061\nsamples = 63\nvalue = [2, 61]\nclass = 0"] ;
296 -> 298 ;
299 [label="('SMR_VSA5',) <= 0.092\ngini = 0.034\nsamples = 58\nvalue = [1, 57]\nclass = 0"] ;
298 -> 299 ;
300 [label="gini = 0.0\nsamples = 53\nvalue = [0, 53]\nclass = 0"] ;
299 -> 300 ;
301 [label="('BCUT2D_CHGHI',) <= -0.129\ngini = 0.32\nsamples = 5\nvalue = [1, 4]\nclass = 0"] ;
299 -> 301 ;
302 [label="gini = 0.0\nsamples = 1\nvalue = [1, 0]\nclass = 1"] ;
301 -> 302 ;
303 [label="gini = 0.0\nsamples = 4\nvalue = [0, 4]\nclass = 0"] ;
301 -> 303 ;
304 [label="('MaxAbsEStateIndex',) <= 0.668\ngini = 0.32\nsamples = 5\nvalue = [1, 4]\nclass = 0"] ;
298 -> 304 ;
305 [label="gini = 0.0\nsamples = 1\nvalue = [1, 0]\nclass = 1"] ;
304 -> 305 ;
306 [label="gini = 0.0\nsamples = 4\nvalue = [0, 4]\nclass = 0"] ;
304 -> 306 ;
307 [label="('EState_VSA10',) <= -0.104\ngini = 0.473\nsamples = 99\nvalue = [38, 61]\nclass = 0"] ;
275 -> 307 ;
308 [label="gini = 0.0\nsamples = 5\nvalue = [5, 0]\nclass = 1"] ;
307 -> 308 ;
309 [label="('MinEStateIndex',) <= 0.058\ngini = 0.456\nsamples = 94\nvalue = [33, 61]\nclass = 0"] ;
307 -> 309 ;
310 [label="('BCUT2D_MRLOW',) <= 0.167\ngini = 0.499\nsamples = 48\nvalue = [23, 25]\nclass = 0"] ;
309 -> 310 ;
311 [label="('BCUT2D_MRLOW',) <= 0.135\ngini = 0.47\nsamples = 37\nvalue = [14, 23]\nclass = 0"] ;
310 -> 311 ;
312 [label="('BCUT2D_LOGPLOW',) <= 0.104\ngini = 0.5\nsamples = 28\nvalue = [14, 14]\nclass = 1"] ;
311 -> 312 ;
313 [label="('FractionCSP3',) <= -0.049\ngini = 0.391\nsamples = 15\nvalue = [11, 4]\nclass = 1"] ;
312 -> 313 ;
314 [label="gini = 0.0\nsamples = 2\nvalue = [0, 2]\nclass = 0"] ;
313 -> 314 ;
315 [label="('MaxAbsEStateIndex',) <= 0.142\ngini = 0.26\nsamples = 13\nvalue = [11, 2]\nclass = 1"] ;
313 -> 315 ;
316 [label="('BCUT2D_MRLOW',) <= 0.121\ngini = 0.444\nsamples = 3\nvalue = [1, 2]\nclass = 0"] ;
315 -> 316 ;
317 [label="gini = 0.0\nsamples = 2\nvalue = [0, 2]\nclass = 0"] ;
316 -> 317 ;
318 [label="gini = 0.0\nsamples = 1\nvalue = [1, 0]\nclass = 1"] ;
316 -> 318 ;
319 [label="gini = 0.0\nsamples = 10\nvalue = [10, 0]\nclass = 1"] ;
315 -> 319 ;
320 [label="('MinAbsEStateIndex',) <= -0.169\ngini = 0.355\nsamples = 13\nvalue = [3, 10]\nclass = 0"] ;
312 -> 320 ;
321 [label="gini = 0.0\nsamples = 7\nvalue = [0, 7]\nclass = 0"] ;
320 -> 321 ;
322 [label="('SlogP_VSA2',) <= -0.04\ngini = 0.5\nsamples = 6\nvalue = [3, 3]\nclass = 1"] ;
320 -> 322 ;
323 [label="gini = 0.0\nsamples = 2\nvalue = [0, 2]\nclass = 0"] ;
322 -> 323 ;
324 [label="('BCUT2D_LOGPLOW',) <= 0.126\ngini = 0.375\nsamples = 4\nvalue = [3, 1]\nclass = 1"] ;
322 -> 324 ;
325 [label="gini = 0.0\nsamples = 1\nvalue = [0, 1]\nclass = 0"] ;
324 -> 325 ;
326 [label="gini = 0.0\nsamples = 3\nvalue = [3, 0]\nclass = 1"] ;
324 -> 326 ;
327 [label="gini = 0.0\nsamples = 9\nvalue = [0, 9]\nclass = 0"] ;
311 -> 327 ;
328 [label="('SlogP_VSA2',) <= -0.029\ngini = 0.298\nsamples = 11\nvalue = [9, 2]\nclass = 1"] ;
310 -> 328 ;
329 [label="('NumAliphaticRings',) <= 0.08\ngini = 0.444\nsamples = 3\nvalue = [1, 2]\nclass = 0"] ;
328 -> 329 ;
330 [label="gini = 0.0\nsamples = 2\nvalue = [0, 2]\nclass = 0"] ;
329 -> 330 ;
331 [label="gini = 0.0\nsamples = 1\nvalue = [1, 0]\nclass = 1"] ;
329 -> 331 ;
332 [label="gini = 0.0\nsamples = 8\nvalue = [8, 0]\nclass = 1"] ;
328 -> 332 ;
333 [label="('VSA_EState2',) <= -0.061\ngini = 0.34\nsamples = 46\nvalue = [10, 36]\nclass = 0"] ;
309 -> 333 ;
334 [label="('MaxAbsEStateIndex',) <= 0.428\ngini = 0.496\nsamples = 11\nvalue = [6, 5]\nclass = 1"] ;
333 -> 334 ;
335 [label="('VSA_EState2',) <= -0.074\ngini = 0.408\nsamples = 7\nvalue = [2, 5]\nclass = 0"] ;
334 -> 335 ;
336 [label="gini = 0.0\nsamples = 5\nvalue = [0, 5]\nclass = 0"] ;
335 -> 336 ;
337 [label="gini = 0.0\nsamples = 2\nvalue = [2, 0]\nclass = 1"] ;
335 -> 337 ;
338 [label="gini = 0.0\nsamples = 4\nvalue = [4, 0]\nclass = 1"] ;
334 -> 338 ;
339 [label="('SMR_VSA1',) <= -0.136\ngini = 0.202\nsamples = 35\nvalue = [4, 31]\nclass = 0"] ;
333 -> 339 ;
340 [label="('SMR_VSA1',) <= -0.164\ngini = 0.444\nsamples = 6\nvalue = [2, 4]\nclass = 0"] ;
339 -> 340 ;
341 [label="gini = 0.0\nsamples = 4\nvalue = [0, 4]\nclass = 0"] ;
340 -> 341 ;
342 [label="gini = 0.0\nsamples = 2\nvalue = [2, 0]\nclass = 1"] ;
340 -> 342 ;
343 [label="('BCUT2D_MRLOW',) <= 0.112\ngini = 0.128\nsamples = 29\nvalue = [2, 27]\nclass = 0"] ;
339 -> 343 ;
344 [label="('BCUT2D_CHGHI',) <= 0.029\ngini = 0.346\nsamples = 9\nvalue = [2, 7]\nclass = 0"] ;
343 -> 344 ;
345 [label="('BCUT2D_MRLOW',) <= 0.097\ngini = 0.219\nsamples = 8\nvalue = [1, 7]\nclass = 0"] ;
344 -> 345 ;
346 [label="gini = 0.0\nsamples = 7\nvalue = [0, 7]\nclass = 0"] ;
345 -> 346 ;
347 [label="gini = 0.0\nsamples = 1\nvalue = [1, 0]\nclass = 1"] ;
345 -> 347 ;
348 [label="gini = 0.0\nsamples = 1\nvalue = [1, 0]\nclass = 1"] ;
344 -> 348 ;
349 [label="gini = 0.0\nsamples = 20\nvalue = [0, 20]\nclass = 0"] ;
343 -> 349 ;
350 [label="('FractionCSP3',) <= -0.008\ngini = 0.481\nsamples = 181\nvalue = [108, 73]\nclass = 1"] ;
142 -> 350 ;
351 [label="('MaxAbsEStateIndex',) <= 0.257\ngini = 0.375\nsamples = 80\nvalue = [60, 20]\nclass = 1"] ;
350 -> 351 ;
352 [label="gini = 0.0\nsamples = 14\nvalue = [14, 0]\nclass = 1"] ;
351 -> 352 ;
353 [label="('MaxAbsEStateIndex',) <= 0.641\ngini = 0.422\nsamples = 66\nvalue = [46, 20]\nclass = 1"] ;
351 -> 353 ;
354 [label="('MaxAbsEStateIndex',) <= 0.552\ngini = 0.483\nsamples = 44\nvalue = [26, 18]\nclass = 1"] ;
353 -> 354 ;
355 [label="('MinAbsEStateIndex',) <= 0.32\ngini = 0.424\nsamples = 36\nvalue = [25, 11]\nclass = 1"] ;
354 -> 355 ;
356 [label="('MaxAbsEStateIndex',) <= 0.455\ngini = 0.499\nsamples = 23\nvalue = [12, 11]\nclass = 1"] ;
355 -> 356 ;
357 [label="('MinAbsEStateIndex',) <= 0.229\ngini = 0.457\nsamples = 17\nvalue = [6, 11]\nclass = 0"] ;
356 -> 357 ;
358 [label="gini = 0.0\nsamples = 6\nvalue = [0, 6]\nclass = 0"] ;
357 -> 358 ;
359 [label="('BCUT2D_CHGLO',) <= -0.214\ngini = 0.496\nsamples = 11\nvalue = [6, 5]\nclass = 1"] ;
357 -> 359 ;
360 [label="gini = 0.0\nsamples = 4\nvalue = [0, 4]\nclass = 0"] ;
359 -> 360 ;
361 [label="('MaxAbsEStateIndex',) <= 0.416\ngini = 0.245\nsamples = 7\nvalue = [6, 1]\nclass = 1"] ;
359 -> 361 ;
362 [label="gini = 0.0\nsamples = 6\nvalue = [6, 0]\nclass = 1"] ;
361 -> 362 ;
363 [label="gini = 0.0\nsamples = 1\nvalue = [0, 1]\nclass = 0"] ;
361 -> 363 ;
364 [label="gini = 0.0\nsamples = 6\nvalue = [6, 0]\nclass = 1"] ;
356 -> 364 ;
365 [label="gini = 0.0\nsamples = 13\nvalue = [13, 0]\nclass = 1"] ;
355 -> 365 ;
366 [label="('FractionCSP3',) <= -0.018\ngini = 0.219\nsamples = 8\nvalue = [1, 7]\nclass = 0"] ;
354 -> 366 ;
367 [label="gini = 0.0\nsamples = 7\nvalue = [0, 7]\nclass = 0"] ;
366 -> 367 ;
368 [label="gini = 0.0\nsamples = 1\nvalue = [1, 0]\nclass = 1"] ;
366 -> 368 ;
369 [label="('MaxAbsEStateIndex',) <= 0.85\ngini = 0.165\nsamples = 22\nvalue = [20, 2]\nclass = 1"] ;
353 -> 369 ;
370 [label="gini = 0.0\nsamples = 18\nvalue = [18, 0]\nclass = 1"] ;
369 -> 370 ;
371 [label="('SMR_VSA1',) <= -0.014\ngini = 0.5\nsamples = 4\nvalue = [2, 2]\nclass = 1"] ;
369 -> 371 ;
372 [label="gini = 0.0\nsamples = 2\nvalue = [0, 2]\nclass = 0"] ;
371 -> 372 ;
373 [label="gini = 0.0\nsamples = 2\nvalue = [2, 0]\nclass = 1"] ;
371 -> 373 ;
374 [label="('SMR_VSA5',) <= -0.1\ngini = 0.499\nsamples = 101\nvalue = [48, 53]\nclass = 0"] ;
350 -> 374 ;
375 [label="gini = 0.0\nsamples = 6\nvalue = [6, 0]\nclass = 1"] ;
374 -> 375 ;
376 [label="('MinEStateIndex',) <= -0.29\ngini = 0.493\nsamples = 95\nvalue = [42, 53]\nclass = 0"] ;
374 -> 376 ;
377 [label="('MinAbsEStateIndex',) <= 0.389\ngini = 0.375\nsamples = 16\nvalue = [12, 4]\nclass = 1"] ;
376 -> 377 ;
378 [label="gini = 0.0\nsamples = 9\nvalue = [9, 0]\nclass = 1"] ;
377 -> 378 ;
379 [label="('SlogP_VSA2',) <= -0.011\ngini = 0.49\nsamples = 7\nvalue = [3, 4]\nclass = 0"] ;
377 -> 379 ;
380 [label="gini = 0.0\nsamples = 3\nvalue = [3, 0]\nclass = 1"] ;
379 -> 380 ;
381 [label="gini = 0.0\nsamples = 4\nvalue = [0, 4]\nclass = 0"] ;
379 -> 381 ;
382 [label="('SMR_VSA1',) <= -0.042\ngini = 0.471\nsamples = 79\nvalue = [30, 49]\nclass = 0"] ;
376 -> 382 ;
383 [label="('NumAliphaticRings',) <= 0.074\ngini = 0.287\nsamples = 23\nvalue = [4, 19]\nclass = 0"] ;
382 -> 383 ;
384 [label="('SMR_VSA5',) <= 0.115\ngini = 0.172\nsamples = 21\nvalue = [2, 19]\nclass = 0"] ;
383 -> 384 ;
385 [label="gini = 0.0\nsamples = 19\nvalue = [0, 19]\nclass = 0"] ;
384 -> 385 ;
386 [label="gini = 0.0\nsamples = 2\nvalue = [2, 0]\nclass = 1"] ;
384 -> 386 ;
387 [label="gini = 0.0\nsamples = 2\nvalue = [2, 0]\nclass = 1"] ;
383 -> 387 ;
388 [label="('MinEStateIndex',) <= 0.42\ngini = 0.497\nsamples = 56\nvalue = [26, 30]\nclass = 0"] ;
382 -> 388 ;
389 [label="('EState_VSA10',) <= 0.029\ngini = 0.499\nsamples = 50\nvalue = [26, 24]\nclass = 1"] ;
388 -> 389 ;
390 [label="('VSA_EState2',) <= 0.014\ngini = 0.478\nsamples = 33\nvalue = [13, 20]\nclass = 0"] ;
389 -> 390 ;
391 [label="('BCUT2D_CHGHI',) <= -0.091\ngini = 0.494\nsamples = 18\nvalue = [10, 8]\nclass = 1"] ;
390 -> 391 ;
392 [label="('BCUT2D_LOGPLOW',) <= -0.185\ngini = 0.219\nsamples = 8\nvalue = [1, 7]\nclass = 0"] ;
391 -> 392 ;
393 [label="gini = 0.0\nsamples = 1\nvalue = [1, 0]\nclass = 1"] ;
392 -> 393 ;
394 [label="gini = 0.0\nsamples = 7\nvalue = [0, 7]\nclass = 0"] ;
392 -> 394 ;
395 [label="('MaxAbsEStateIndex',) <= 0.819\ngini = 0.18\nsamples = 10\nvalue = [9, 1]\nclass = 1"] ;
391 -> 395 ;
396 [label="gini = 0.0\nsamples = 9\nvalue = [9, 0]\nclass = 1"] ;
395 -> 396 ;
397 [label="gini = 0.0\nsamples = 1\nvalue = [0, 1]\nclass = 0"] ;
395 -> 397 ;
398 [label="('BCUT2D_LOGPLOW',) <= -0.082\ngini = 0.32\nsamples = 15\nvalue = [3, 12]\nclass = 0"] ;
390 -> 398 ;
399 [label="('MinAbsEStateIndex',) <= 0.483\ngini = 0.48\nsamples = 5\nvalue = [3, 2]\nclass = 1"] ;
398 -> 399 ;
400 [label="gini = 0.0\nsamples = 3\nvalue = [3, 0]\nclass = 1"] ;
399 -> 400 ;
401 [label="gini = 0.0\nsamples = 2\nvalue = [0, 2]\nclass = 0"] ;
399 -> 401 ;
402 [label="gini = 0.0\nsamples = 10\nvalue = [0, 10]\nclass = 0"] ;
398 -> 402 ;
403 [label="('BCUT2D_MRLOW',) <= -0.262\ngini = 0.36\nsamples = 17\nvalue = [13, 4]\nclass = 1"] ;
389 -> 403 ;
404 [label="('FractionCSP3',) <= 0.039\ngini = 0.375\nsamples = 4\nvalue = [1, 3]\nclass = 0"] ;
403 -> 404 ;
405 [label="gini = 0.0\nsamples = 1\nvalue = [1, 0]\nclass = 1"] ;
404 -> 405 ;
406 [label="gini = 0.0\nsamples = 3\nvalue = [0, 3]\nclass = 0"] ;
404 -> 406 ;
407 [label="('MaxAbsEStateIndex',) <= 0.292\ngini = 0.142\nsamples = 13\nvalue = [12, 1]\nclass = 1"] ;
403 -> 407 ;
408 [label="gini = 0.0\nsamples = 1\nvalue = [0, 1]\nclass = 0"] ;
407 -> 408 ;
409 [label="gini = 0.0\nsamples = 12\nvalue = [12, 0]\nclass = 1"] ;
407 -> 409 ;
410 [label="gini = 0.0\nsamples = 6\nvalue = [0, 6]\nclass = 0"] ;
388 -> 410 ;
}
